digraph Tree {
node [shape=box, style="filled, rounded", color="black", fontname=helvetica] ;
edge [fontname=helvetica] ;
0 [label="variance_wavelet_transformed_image <= 0.32\ngini = 0.493\nsamples = 1089\nvalue = [609, 480]\nclass = real", fillcolor="#f9e4d5"] ;
1 [label="skewness_wavelet_transformed_image <= 7.565\ngini = 0.304\nsamples = 519\nvalue = [97, 422]\nclass = fake", fillcolor="#67b4eb"] ;
0 -> 1 [labeldistance=2.5, labelangle=45, headlabel="True"] ;
2 [label="variance_wavelet_transformed_image <= -0.403\ngini = 0.132\nsamples = 437\nvalue = [31, 406]\nclass = fake", fillcolor="#48a4e7"] ;
1 -> 2 ;
3 [label="curtosis_wavelet_transformed_image <= 6.219\ngini = 0.068\nsamples = 369\nvalue = [13, 356]\nclass = fake", fillcolor="#40a1e6"] ;
2 -> 3 ;
4 [label="skewness_wavelet_transformed_image <= 7.293\ngini = 0.008\nsamples = 250\nvalue = [1, 249]\nclass = fake", fillcolor="#3a9de5"] ;
3 -> 4 ;
5 [label="gini = 0.0\nsamples = 246\nvalue = [0, 246]\nclass = fake", fillcolor="#399de5"] ;
4 -> 5 ;
6 [label="entropy_image <= -4.115\ngini = 0.375\nsamples = 4\nvalue = [1, 3]\nclass = fake", fillcolor="#7bbeee"] ;
4 -> 6 ;
7 [label="gini = 0.0\nsamples = 3\nvalue = [0, 3]\nclass = fake", fillcolor="#399de5"] ;
6 -> 7 ;
8 [label="gini = 0.0\nsamples = 1\nvalue = [1, 0]\nclass = real", fillcolor="#e58139"] ;
6 -> 8 ;
9 [label="skewness_wavelet_transformed_image <= -4.675\ngini = 0.181\nsamples = 119\nvalue = [12, 107]\nclass = fake", fillcolor="#4fa8e8"] ;
3 -> 9 ;
10 [label="gini = 0.0\nsamples = 106\nvalue = [0, 106]\nclass = fake", fillcolor="#399de5"] ;
9 -> 10 ;
11 [label="variance_wavelet_transformed_image <= -2.117\ngini = 0.142\nsamples = 13\nvalue = [12, 1]\nclass = real", fillcolor="#e78c49"] ;
9 -> 11 ;
12 [label="gini = 0.0\nsamples = 1\nvalue = [0, 1]\nclass = fake", fillcolor="#399de5"] ;
11 -> 12 ;
13 [label="gini = 0.0\nsamples = 12\nvalue = [12, 0]\nclass = real", fillcolor="#e58139"] ;
11 -> 13 ;
14 [label="skewness_wavelet_transformed_image <= 5.442\ngini = 0.389\nsamples = 68\nvalue = [18, 50]\nclass = fake", fillcolor="#80c0ee"] ;
2 -> 14 ;
15 [label="curtosis_wavelet_transformed_image <= 2.625\ngini = 0.238\nsamples = 58\nvalue = [8, 50]\nclass = fake", fillcolor="#59ade9"] ;
14 -> 15 ;
16 [label="gini = 0.0\nsamples = 49\nvalue = [0, 49]\nclass = fake", fillcolor="#399de5"] ;
15 -> 16 ;
17 [label="skewness_wavelet_transformed_image <= -3.666\ngini = 0.198\nsamples = 9\nvalue = [8, 1]\nclass = real", fillcolor="#e89152"] ;
15 -> 17 ;
18 [label="gini = 0.0\nsamples = 1\nvalue = [0, 1]\nclass = fake", fillcolor="#399de5"] ;
17 -> 18 ;
19 [label="gini = 0.0\nsamples = 8\nvalue = [8, 0]\nclass = real", fillcolor="#e58139"] ;
17 -> 19 ;
20 [label="gini = 0.0\nsamples = 10\nvalue = [10, 0]\nclass = real", fillcolor="#e58139"] ;
14 -> 20 ;
21 [label="variance_wavelet_transformed_image <= -4.726\ngini = 0.314\nsamples = 82\nvalue = [66, 16]\nclass = real", fillcolor="#eba069"] ;
1 -> 21 ;
22 [label="gini = 0.0\nsamples = 16\nvalue = [0, 16]\nclass = fake", fillcolor="#399de5"] ;
21 -> 22 ;
23 [label="gini = 0.0\nsamples = 66\nvalue = [66, 0]\nclass = real", fillcolor="#e58139"] ;
21 -> 23 ;
24 [label="curtosis_wavelet_transformed_image <= -4.386\ngini = 0.183\nsamples = 570\nvalue = [512, 58]\nclass = real", fillcolor="#e88f4f"] ;
0 -> 24 [labeldistance=2.5, labelangle=-45, headlabel="False"] ;
25 [label="variance_wavelet_transformed_image <= 3.304\ngini = 0.375\nsamples = 36\nvalue = [9, 27]\nclass = fake", fillcolor="#7bbeee"] ;
24 -> 25 ;
26 [label="gini = 0.0\nsamples = 27\nvalue = [0, 27]\nclass = fake", fillcolor="#399de5"] ;
25 -> 26 ;
27 [label="gini = 0.0\nsamples = 9\nvalue = [9, 0]\nclass = real", fillcolor="#e58139"] ;
25 -> 27 ;
28 [label="variance_wavelet_transformed_image <= 1.592\ngini = 0.109\nsamples = 534\nvalue = [503, 31]\nclass = real", fillcolor="#e78945"] ;
24 -> 28 ;
29 [label="curtosis_wavelet_transformed_image <= -2.272\ngini = 0.333\nsamples = 142\nvalue = [112, 30]\nclass = real", fillcolor="#eca36e"] ;
28 -> 29 ;
30 [label="skewness_wavelet_transformed_image <= 5.667\ngini = 0.245\nsamples = 21\nvalue = [3, 18]\nclass = fake", fillcolor="#5aade9"] ;
29 -> 30 ;
31 [label="gini = 0.0\nsamples = 18\nvalue = [0, 18]\nclass = fake", fillcolor="#399de5"] ;
30 -> 31 ;
32 [label="gini = 0.0\nsamples = 3\nvalue = [3, 0]\nclass = real", fillcolor="#e58139"] ;
30 -> 32 ;
33 [label="entropy_image <= 0.082\ngini = 0.179\nsamples = 121\nvalue = [109, 12]\nclass = real", fillcolor="#e88f4f"] ;
29 -> 33 ;
34 [label="gini = 0.0\nsamples = 95\nvalue = [95, 0]\nclass = real", fillcolor="#e58139"] ;
33 -> 34 ;
35 [label="curtosis_wavelet_transformed_image <= 1.874\ngini = 0.497\nsamples = 26\nvalue = [14, 12]\nclass = real", fillcolor="#fbede3"] ;
33 -> 35 ;
36 [label="skewness_wavelet_transformed_image <= 3.559\ngini = 0.245\nsamples = 14\nvalue = [2, 12]\nclass = fake", fillcolor="#5aade9"] ;
35 -> 36 ;
37 [label="gini = 0.0\nsamples = 12\nvalue = [0, 12]\nclass = fake", fillcolor="#399de5"] ;
36 -> 37 ;
38 [label="gini = 0.0\nsamples = 2\nvalue = [2, 0]\nclass = real", fillcolor="#e58139"] ;
36 -> 38 ;
39 [label="gini = 0.0\nsamples = 12\nvalue = [12, 0]\nclass = real", fillcolor="#e58139"] ;
35 -> 39 ;
40 [label="variance_wavelet_transformed_image <= 2.018\ngini = 0.005\nsamples = 392\nvalue = [391, 1]\nclass = real", fillcolor="#e5813a"] ;
28 -> 40 ;
41 [label="variance_wavelet_transformed_image <= 2.017\ngini = 0.049\nsamples = 40\nvalue = [39, 1]\nclass = real", fillcolor="#e6843e"] ;
40 -> 41 ;
42 [label="gini = 0.0\nsamples = 39\nvalue = [39, 0]\nclass = real", fillcolor="#e58139"] ;
41 -> 42 ;
43 [label="gini = 0.0\nsamples = 1\nvalue = [0, 1]\nclass = fake", fillcolor="#399de5"] ;
41 -> 43 ;
44 [label="gini = 0.0\nsamples = 352\nvalue = [352, 0]\nclass = real", fillcolor="#e58139"] ;
40 -> 44 ;
}