digraph Tree {
node [shape=box, style="filled, rounded", color="black", fontname=helvetica] ;
edge [fontname=helvetica] ;
0 [label="variance_wavelet_transformed_image <= 0.321\ngini = 0.494\nsamples = 1089\nvalue = [605, 484]\nclass = real", fillcolor="#fae6d7"] ;
1 [label="skewness_wavelet_transformed_image <= 5.865\ngini = 0.312\nsamples = 523\nvalue = [101, 422]\nclass = fake", fillcolor="#68b4eb"] ;
0 -> 1 [labeldistance=2.5, labelangle=45, headlabel="True"] ;
2 [label="curtosis_wavelet_transformed_image <= 6.746\ngini = 0.118\nsamples = 414\nvalue = [26, 388]\nclass = fake", fillcolor="#46a4e7"] ;
1 -> 2 ;
3 [label="curtosis_wavelet_transformed_image <= 3.064\ngini = 0.02\nsamples = 298\nvalue = [3, 295]\nclass = fake", fillcolor="#3b9ee5"] ;
2 -> 3 ;
4 [label="gini = 0.0\nsamples = 247\nvalue = [0, 247]\nclass = fake", fillcolor="#399de5"] ;
3 -> 4 ;
5 [label="skewness_wavelet_transformed_image <= -0.476\ngini = 0.111\nsamples = 51\nvalue = [3, 48]\nclass = fake", fillcolor="#45a3e7"] ;
3 -> 5 ;
6 [label="gini = 0.0\nsamples = 48\nvalue = [0, 48]\nclass = fake", fillcolor="#399de5"] ;
5 -> 6 ;
7 [label="gini = 0.0\nsamples = 3\nvalue = [3, 0]\nclass = real", fillcolor="#e58139"] ;
5 -> 7 ;
8 [label="skewness_wavelet_transformed_image <= -4.897\ngini = 0.318\nsamples = 116\nvalue = [23, 93]\nclass = fake", fillcolor="#6ab5eb"] ;
2 -> 8 ;
9 [label="variance_wavelet_transformed_image <= -0.534\ngini = 0.021\nsamples = 94\nvalue = [1, 93]\nclass = fake", fillcolor="#3b9ee5"] ;
8 -> 9 ;
10 [label="gini = 0.0\nsamples = 93\nvalue = [0, 93]\nclass = fake", fillcolor="#399de5"] ;
9 -> 10 ;
11 [label="gini = 0.0\nsamples = 1\nvalue = [1, 0]\nclass = real", fillcolor="#e58139"] ;
9 -> 11 ;
12 [label="gini = 0.0\nsamples = 22\nvalue = [22, 0]\nclass = real", fillcolor="#e58139"] ;
8 -> 12 ;
13 [label="variance_wavelet_transformed_image <= -3.445\ngini = 0.429\nsamples = 109\nvalue = [75, 34]\nclass = real", fillcolor="#f1ba93"] ;
1 -> 13 ;
14 [label="gini = 0.0\nsamples = 34\nvalue = [0, 34]\nclass = fake", fillcolor="#399de5"] ;
13 -> 14 ;
15 [label="gini = 0.0\nsamples = 75\nvalue = [75, 0]\nclass = real", fillcolor="#e58139"] ;
13 -> 15 ;
16 [label="curtosis_wavelet_transformed_image <= -4.443\ngini = 0.195\nsamples = 566\nvalue = [504, 62]\nclass = real", fillcolor="#e89051"] ;
0 -> 16 [labeldistance=2.5, labelangle=-45, headlabel="False"] ;
17 [label="skewness_wavelet_transformed_image <= 7.167\ngini = 0.32\nsamples = 30\nvalue = [6, 24]\nclass = fake", fillcolor="#6ab6ec"] ;
16 -> 17 ;
18 [label="gini = 0.0\nsamples = 24\nvalue = [0, 24]\nclass = fake", fillcolor="#399de5"] ;
17 -> 18 ;
19 [label="gini = 0.0\nsamples = 6\nvalue = [6, 0]\nclass = real", fillcolor="#e58139"] ;
17 -> 19 ;
20 [label="variance_wavelet_transformed_image <= 1.592\ngini = 0.132\nsamples = 536\nvalue = [498, 38]\nclass = real", fillcolor="#e78b48"] ;
16 -> 20 ;
21 [label="curtosis_wavelet_transformed_image <= -2.272\ngini = 0.356\nsamples = 151\nvalue = [116, 35]\nclass = real", fillcolor="#eda775"] ;
20 -> 21 ;
22 [label="skewness_wavelet_transformed_image <= 5.667\ngini = 0.172\nsamples = 21\nvalue = [2, 19]\nclass = fake", fillcolor="#4ea7e8"] ;
21 -> 22 ;
23 [label="gini = 0.0\nsamples = 19\nvalue = [0, 19]\nclass = fake", fillcolor="#399de5"] ;
22 -> 23 ;
24 [label="gini = 0.0\nsamples = 2\nvalue = [2, 0]\nclass = real", fillcolor="#e58139"] ;
22 -> 24 ;
25 [label="entropy_image <= 0.082\ngini = 0.216\nsamples = 130\nvalue = [114, 16]\nclass = real", fillcolor="#e99355"] ;
21 -> 25 ;
26 [label="variance_wavelet_transformed_image <= 0.42\ngini = 0.02\nsamples = 98\nvalue = [97, 1]\nclass = real", fillcolor="#e5823b"] ;
25 -> 26 ;
27 [label="curtosis_wavelet_transformed_image <= -1.324\ngini = 0.124\nsamples = 15\nvalue = [14, 1]\nclass = real", fillcolor="#e78a47"] ;
26 -> 27 ;
28 [label="gini = 0.0\nsamples = 1\nvalue = [0, 1]\nclass = fake", fillcolor="#399de5"] ;
27 -> 28 ;
29 [label="gini = 0.0\nsamples = 14\nvalue = [14, 0]\nclass = real", fillcolor="#e58139"] ;
27 -> 29 ;
30 [label="gini = 0.0\nsamples = 83\nvalue = [83, 0]\nclass = real", fillcolor="#e58139"] ;
26 -> 30 ;
31 [label="curtosis_wavelet_transformed_image <= 1.853\ngini = 0.498\nsamples = 32\nvalue = [17, 15]\nclass = real", fillcolor="#fcf0e8"] ;
25 -> 31 ;
32 [label="skewness_wavelet_transformed_image <= 3.7\ngini = 0.117\nsamples = 16\nvalue = [1, 15]\nclass = fake", fillcolor="#46a4e7"] ;
31 -> 32 ;
33 [label="gini = 0.0\nsamples = 15\nvalue = [0, 15]\nclass = fake", fillcolor="#399de5"] ;
32 -> 33 ;
34 [label="gini = 0.0\nsamples = 1\nvalue = [1, 0]\nclass = real", fillcolor="#e58139"] ;
32 -> 34 ;
35 [label="gini = 0.0\nsamples = 16\nvalue = [16, 0]\nclass = real", fillcolor="#e58139"] ;
31 -> 35 ;
36 [label="variance_wavelet_transformed_image <= 2.039\ngini = 0.015\nsamples = 385\nvalue = [382, 3]\nclass = real", fillcolor="#e5823b"] ;
20 -> 36 ;
37 [label="curtosis_wavelet_transformed_image <= -2.648\ngini = 0.122\nsamples = 46\nvalue = [43, 3]\nclass = real", fillcolor="#e78a47"] ;
36 -> 37 ;
38 [label="entropy_image <= -1.796\ngini = 0.375\nsamples = 4\nvalue = [1, 3]\nclass = fake", fillcolor="#7bbeee"] ;
37 -> 38 ;
39 [label="gini = 0.0\nsamples = 1\nvalue = [1, 0]\nclass = real", fillcolor="#e58139"] ;
38 -> 39 ;
40 [label="gini = 0.0\nsamples = 3\nvalue = [0, 3]\nclass = fake", fillcolor="#399de5"] ;
38 -> 40 ;
41 [label="gini = 0.0\nsamples = 42\nvalue = [42, 0]\nclass = real", fillcolor="#e58139"] ;
37 -> 41 ;
42 [label="gini = 0.0\nsamples = 339\nvalue = [339, 0]\nclass = real", fillcolor="#e58139"] ;
36 -> 42 ;
}